<?xml version="1.0"?>
<opencv_storage>
<cascade>
  <stageType>BOOST</stageType>
  <featureType>HAAR</featureType>
  <height>24</height>
  <width>24</width>
  <stageParams>
    <boostType>GAB</boostType>
    <minHitRate>9.9500000476837158e-01</minHitRate>
    <maxFalseAlarm>5.0000000000000000e-01</maxFalseAlarm>
    <weightTrimRate>9.4999999999999996e-01</weightTrimRate>
    <maxDepth>1</maxDepth>
    <maxWeakCount>100</maxWeakCount></stageParams>
  <featureParams>
    <maxCatCount>0</maxCatCount>
    <featSize>1</featSize>
    <mode>BASIC</mode></featureParams>
  <stageNum>20</stageNum>
  <stages>
    <!-- stage 0 -->
    <_>
      <maxWeakCount>2</maxWeakCount>
      <stageThreshold>-1.5221063792705536e-01</stageThreshold>
      <weakClassifiers>
        <_>
          <internalNodes>
            0 -1 14 -1.1076026130467653e-03</internalNodes>
          <leafValues>
            7.0588237047195435e-01 -9.2307692766189575e-01</leafValues></_>
        <_>
          <internalNodes>
            0 -1 6 -3.3620409667491913e-03</internalNodes>
          <leafValues>
            7.7086627483367920e-01 -8.4852850437164307e-01</leafValues></_></weakClassifiers></_>
    <!-- stage 1 -->
    <_>
      <maxWeakCount>2</maxWeakCount>
      <stageThreshold>7.5407482683658600e-02</stageThreshold>
      <weakClassifiers>
        <_>
          <internalNodes>
            0 -1 0 -3.9779961109161377e-02</internalNodes>
          <leafValues>
            9.2592591047286987e-01 -7.5757575035095215e-01</leafValues></_>
        <_>
          <internalNodes>
            0 -1 33 4.1700027883052826e-02</internalNodes>
          <leafValues>
            8.5235047340393066e-01 -8.5051846504211426e-01</leafValues></_></weakClassifiers></_>
    <!-- stage 2 -->
    <_>
      <maxWeakCount>2</maxWeakCount>
      <stageThreshold>3.7027727812528610e-02</stageThreshold>
      <weakClassifiers>
        <_>
          <internalNodes>
            0 -1 22 -1.3001939281821251e-02</internalNodes>
          <leafValues>
            7.4193549156188965e-01 -7.9310345649719238e-01</leafValues></_>
        <_>
          <internalNodes>
            0 -1 40 1.3071784051135182e-03</internalNodes>
          <leafValues>
            -7.0490777492523193e-01 8.9391481876373291e-01</leafValues></_></weakClassifiers></_>
    <!-- stage 3 -->
    <_>
      <maxWeakCount>3</maxWeakCount>
      <stageThreshold>-4.7040352225303650e-01</stageThreshold>
      <weakClassifiers>
        <_>
          <internalNodes>
            0 -1 37 5.2930060774087906e-03</internalNodes>
          <leafValues>
            -7.1428573131561279e-01 6.2500000000000000e-01</leafValues></_>
        <_>
          <internalNodes>
            0 -1 25 -5.5875722318887711e-04</internalNodes>
          <leafValues>
            8.3467733860015869e-01 -5.7553642988204956e-01</leafValues></_>
        <_>
          <internalNodes>
            0 -1 16 5.2527803927659988e-04</internalNodes>
          <leafValues>
            -5.1986706256866455e-01 8.7824773788452148e-01</leafValues></_></weakClassifiers></_>
    <!-- stage 4 -->
    <_>
      <maxWeakCount>2</maxWeakCount>
      <stageThreshold>-2.1564428508281708e-01</stageThreshold>
      <weakClassifiers>
        <_>
          <internalNodes>
            0 -1 36 -6.9306671619415283e-02</internalNodes>
          <leafValues>
            -9.1304349899291992e-01 5.6756758689880371e-01</leafValues></_>
        <_>
          <internalNodes>
            0 -1 15 -1.2293288484215736e-02</internalNodes>
          <leafValues>
            -6.3585734367370605e-01 6.9739919900894165e-01</leafValues></_></weakClassifiers></_>
    <!-- stage 5 -->
    <_>
      <maxWeakCount>1</maxWeakCount>
      <stageThreshold>5.0000000000000000e-01</stageThreshold>
      <weakClassifiers>
        <_>
          <internalNodes>
            0 -1 2 -6.7283761501312256e-01</internalNodes>
          <leafValues>
            5.0000000000000000e-01 -1.</leafValues></_></weakClassifiers></_>
    <!-- stage 6 -->
    <_>
      <maxWeakCount>2</maxWeakCount>
      <stageThreshold>1.1277104914188385e-01</stageThreshold>
      <weakClassifiers>
        <_>
          <internalNodes>
            0 -1 7 -2.8978265821933746e-02</internalNodes>
          <leafValues>
            8.4615385532379150e-01 -6.4705884456634521e-01</leafValues></_>
        <_>
          <internalNodes>
            0 -1 42 -4.5278673060238361e-03</internalNodes>
          <leafValues>
            7.5982987880706787e-01 -7.3292297124862671e-01</leafValues></_></weakClassifiers></_>
    <!-- stage 7 -->
    <_>
      <maxWeakCount>3</maxWeakCount>
      <stageThreshold>-2.4051031470298767e-01</stageThreshold>
      <weakClassifiers>
        <_>
          <internalNodes>
            0 -1 39 2.8133453801274300e-02</internalNodes>
          <leafValues>
            -6.0000002384185791e-01 8.3999997377395630e-01</leafValues></_>
        <_>
          <internalNodes>
            0 -1 11 2.4791958276182413e-03</internalNodes>
          <leafValues>
            -4.4184181094169617e-01 9.3010264635086060e-01</leafValues></_>
        <_>
          <internalNodes>
            0 -1 41 1.5179323963820934e-03</internalNodes>
          <leafValues>
            -5.7061290740966797e-01 8.6110597848892212e-01</leafValues></_></weakClassifiers></_>
    <!-- stage 8 -->
    <_>
      <maxWeakCount>3</maxWeakCount>
      <stageThreshold>-2.7439218759536743e-01</stageThreshold>
      <weakClassifiers>
        <_>
          <internalNodes>
            0 -1 23 -6.5063815563917160e-03</internalNodes>
          <leafValues>
            1. -3.6363637447357178e-01</leafValues></_>
        <_>
          <internalNodes>
            0 -1 17 2.4449932388961315e-03</internalNodes>
          <leafValues>
            -6.4698421955108643e-01 6.0711055994033813e-01</leafValues></_>
        <_>
          <internalNodes>
            0 -1 46 3.6487873876467347e-04</internalNodes>
          <leafValues>
            -5.1786637306213379e-01 8.0310291051864624e-01</leafValues></_></weakClassifiers></_>
    <!-- stage 9 -->
    <_>
      <maxWeakCount>3</maxWeakCount>
      <stageThreshold>2.6182582974433899e-01</stageThreshold>
      <weakClassifiers>
        <_>
          <internalNodes>
            0 -1 3 -5.2802681922912598e-02</internalNodes>
          <leafValues>
            5.0000000000000000e-01 -7.5000000000000000e-01</leafValues></_>
        <_>
          <internalNodes>
            0 -1 10 -5.3897488396614790e-04</internalNodes>
          <leafValues>
            -9.2602777481079102e-01 4.2317074537277222e-01</leafValues></_>
        <_>
          <internalNodes>
            0 -1 26 -8.2090515643358231e-03</internalNodes>
          <leafValues>
            8.9043939113616943e-01 -6.6134494543075562e-01</leafValues></_></weakClassifiers></_>
    <!-- stage 10 -->
    <_>
      <maxWeakCount>2</maxWeakCount>
      <stageThreshold>2.3453497886657715e-01</stageThreshold>
      <weakClassifiers>
        <_>
          <internalNodes>
            0 -1 9 3.4018196165561676e-03</internalNodes>
          <leafValues>
            -4.8717948794364929e-01 9.0476191043853760e-01</leafValues></_>
        <_>
          <internalNodes>
            0 -1 34 -6.5718032419681549e-04</internalNodes>
          <leafValues>
            8.3668887615203857e-01 -6.7022693157196045e-01</leafValues></_></weakClassifiers></_>
    <!-- stage 11 -->
    <_>
      <maxWeakCount>2</maxWeakCount>
      <stageThreshold>9.6299648284912109e-02</stageThreshold>
      <weakClassifiers>
        <_>
          <internalNodes>
            0 -1 38 2.6042208075523376e-02</internalNodes>
          <leafValues>
            -5.5555558204650879e-01 8.3333331346511841e-01</leafValues></_>
        <_>
          <internalNodes>
            0 -1 24 -9.6994498744606972e-03</internalNodes>
          <leafValues>
            7.1712321043014526e-01 -7.3703366518020630e-01</leafValues></_></weakClassifiers></_>
    <!-- stage 12 -->
    <_>
      <maxWeakCount>2</maxWeakCount>
      <stageThreshold>-7.0710927248001099e-02</stageThreshold>
      <weakClassifiers>
        <_>
          <internalNodes>
            0 -1 1 -9.4006016850471497e-02</internalNodes>
          <leafValues>
            4.8571428656578064e-01 -6.8000000715255737e-01</leafValues></_>
        <_>
          <internalNodes>
            0 -1 31 6.8666599690914154e-03</internalNodes>
          <leafValues>
            -5.5642521381378174e-01 8.3696281909942627e-01</leafValues></_></weakClassifiers></_>
    <!-- stage 13 -->
    <_>
      <maxWeakCount>2</maxWeakCount>
      <stageThreshold>1.6584211587905884e-01</stageThreshold>
      <weakClassifiers>
        <_>
          <internalNodes>
            0 -1 28 -3.0898794531822205e-02</internalNodes>
          <leafValues>
            -6.1111110448837280e-01 9.1666668653488159e-01</leafValues></_>
        <_>
          <internalNodes>
            0 -1 8 -1.8838960386347026e-04</internalNodes>
          <leafValues>
            7.7695322036743164e-01 -5.4013448953628540e-01</leafValues></_></weakClassifiers></_>
    <!-- stage 14 -->
    <_>
      <maxWeakCount>2</maxWeakCount>
      <stageThreshold>-3.7400953471660614e-02</stageThreshold>
      <weakClassifiers>
        <_>
          <internalNodes>
            0 -1 43 1.7867297865450382e-03</internalNodes>
          <leafValues>
            5.2631580829620361e-01 -9.0909093618392944e-01</leafValues></_>
        <_>
          <internalNodes>
            0 -1 4 3.6465704906731844e-03</internalNodes>
          <leafValues>
            -5.6371676921844482e-01 9.4039618968963623e-01</leafValues></_></weakClassifiers></_>
    <!-- stage 15 -->
    <_>
      <maxWeakCount>3</maxWeakCount>
      <stageThreshold>-7.2733618319034576e-02</stageThreshold>
      <weakClassifiers>
        <_>
          <internalNodes>
            0 -1 35 -2.2666797041893005e-02</internalNodes>
          <leafValues>
            -3.4883719682693481e-01 8.8235294818878174e-01</leafValues></_>
        <_>
          <internalNodes>
            0 -1 21 3.2693566754460335e-04</internalNodes>
          <leafValues>
            -4.2433613538742065e-01 7.9034948348999023e-01</leafValues></_>
        <_>
          <internalNodes>
            0 -1 27 -2.6957145892083645e-03</internalNodes>
          <leafValues>
            7.2999149560928345e-01 -5.1424592733383179e-01</leafValues></_></weakClassifiers></_>
    <!-- stage 16 -->
    <_>
      <maxWeakCount>3</maxWeakCount>
      <stageThreshold>3.5041573643684387e-01</stageThreshold>
      <weakClassifiers>
        <_>
          <internalNodes>
            0 -1 48 3.3332915336359292e-05</internalNodes>
          <leafValues>
            6.1290323734283447e-01 -6.5517240762710571e-01</leafValues></_>
        <_>
          <internalNodes>
            0 -1 44 5.0505310355219990e-05</internalNodes>
          <leafValues>
            5.4236847162246704e-01 -7.7743661403656006e-01</leafValues></_>
        <_>
          <internalNodes>
            0 -1 18 3.0153659172356129e-03</internalNodes>
          <leafValues>
            -7.9458421468734741e-01 5.1494908332824707e-01</leafValues></_></weakClassifiers></_>
    <!-- stage 17 -->
    <_>
      <maxWeakCount>4</maxWeakCount>
      <stageThreshold>-2.6884434744715691e-02</stageThreshold>
      <weakClassifiers>
        <_>
          <internalNodes>
            0 -1 5 -2.3643255233764648e-02</internalNodes>
          <leafValues>
            -8.8888889551162720e-01 3.8095238804817200e-01</leafValues></_>
        <_>
          <internalNodes>
            0 -1 13 -1.1829087510704994e-02</internalNodes>
          <leafValues>
            7.9914712905883789e-01 -5.2863699197769165e-01</leafValues></_>
        <_>
          <internalNodes>
            0 -1 47 1.7355827149003744e-03</internalNodes>
          <leafValues>
            -5.6735157966613770e-01 7.8110104799270630e-01</leafValues></_>
        <_>
          <internalNodes>
            0 -1 45 -2.4861217752913944e-05</internalNodes>
          <leafValues>
            7.3178571462631226e-01 -7.1824371814727783e-01</leafValues></_></weakClassifiers></_>
    <!-- stage 18 -->
    <_>
      <maxWeakCount>3</maxWeakCount>
      <stageThreshold>-5.9593719244003296e-01</stageThreshold>
      <weakClassifiers>
        <_>
          <internalNodes>
            0 -1 29 5.2710119634866714e-03</internalNodes>
          <leafValues>
            5.6250000000000000e-01 -6.4285713434219360e-01</leafValues></_>
        <_>
          <internalNodes>
            0 -1 32 -8.9253007899969816e-05</internalNodes>
          <leafValues>
            8.2208573818206787e-01 -5.0003182888031006e-01</leafValues></_>
        <_>
          <internalNodes>
            0 -1 12 -5.1179202273488045e-03</internalNodes>
          <leafValues>
            -8.8112908601760864e-01 5.4695183038711548e-01</leafValues></_></weakClassifiers></_>
    <!-- stage 19 -->
    <_>
      <maxWeakCount>3</maxWeakCount>
      <stageThreshold>-4.7624835371971130e-01</stageThreshold>
      <weakClassifiers>
        <_>
          <internalNodes>
            0 -1 30 3.6565728485584259e-02</internalNodes>
          <leafValues>
            -4.8571428656578064e-01 6.8000000715255737e-01</leafValues></_>
        <_>
          <internalNodes>
            0 -1 19 5.8269528381060809e-05</internalNodes>
          <leafValues>
            6.2904495000839233e-01 -6.7714512348175049e-01</leafValues></_>
        <_>
          <internalNodes>
            0 -1 20 3.8880496285855770e-03</internalNodes>
          <leafValues>
            -4.7910323739051819e-01 8.5933005809783936e-01</leafValues></_></weakClassifiers></_></stages>
  <features>
    <_>
      <rects>
        <_>
          0 0 10 22 -1.</_>
        <_>
          5 0 5 22 2.</_></rects>
      <tilted>0</tilted></_>
    <_>
      <rects>
        <_>
          0 0 18 10 -1.</_>
        <_>
          0 5 18 5 2.</_></rects>
      <tilted>0</tilted></_>
    <_>
      <rects>
        <_>
          0 0 20 21 -1.</_>
        <_>
          0 7 20 7 2.</_></rects>
      <tilted>0</tilted></_>
    <_>
      <rects>
        <_>
          0 1 2 15 -1.</_>
        <_>
          0 6 2 5 2.</_></rects>
      <tilted>0</tilted></_>
    <_>
      <rects>
        <_>
          0 4 14 4 -1.</_>
        <_>
          0 4 7 2 2.</_>
        <_>
          7 6 7 2 2.</_></rects>
      <tilted>0</tilted></_>
    <_>
      <rects>
        <_>
          0 6 24 2 -1.</_>
        <_>
          12 6 12 2 2.</_></rects>
      <tilted>0</tilted></_>
    <_>
      <rects>
        <_>
          1 5 23 4 -1.</_>
        <_>
          1 7 23 2 2.</_></rects>
      <tilted>0</tilted></_>
    <_>
      <rects>
        <_>
          1 8 10 12 -1.</_>
        <_>
          6 8 5 12 2.</_></rects>
      <tilted>0</tilted></_>
    <_>
      <rects>
        <_>
          1 10 2 2 -1.</_>
        <_>
          1 11 2 1 2.</_></rects>
      <tilted>0</tilted></_>
    <_>
      <rects>
        <_>
          1 18 17 2 -1.</_>
        <_>
          1 19 17 1 2.</_></rects>
      <tilted>0</tilted></_>
    <_>
      <rects>
        <_>
          1 21 2 2 -1.</_>
        <_>
          1 21 1 1 2.</_>
        <_>
          2 22 1 1 2.</_></rects>
      <tilted>0</tilted></_>
    <_>
      <rects>
        <_>
          3 4 2 18 -1.</_>
        <_>
          3 4 1 9 2.</_>
        <_>
          4 13 1 9 2.</_></rects>
      <tilted>0</tilted></_>
    <_>
      <rects>
        <_>
          3 6 18 2 -1.</_>
        <_>
          3 6 9 1 2.</_>
        <_>
          12 7 9 1 2.</_></rects>
      <tilted>0</tilted></_>
    <_>
      <rects>
        <_>
          3 19 8 3 -1.</_>
        <_>
          7 19 4 3 2.</_></rects>
      <tilted>0</tilted></_>
    <_>
      <rects>
        <_>
          4 1 9 6 -1.</_>
        <_>
          4 4 9 3 2.</_></rects>
      <tilted>0</tilted></_>
    <_>
      <rects>
        <_>
          4 2 1 6 -1.</_>
        <_>
          4 4 1 2 2.</_></rects>
      <tilted>0</tilted></_>
    <_>
      <rects>
        <_>
          4 13 6 1 -1.</_>
        <_>
          7 13 3 1 2.</_></rects>
      <tilted>0</tilted></_>
    <_>
      <rects>
        <_>
          4 19 12 4 -1.</_>
        <_>
          4 19 6 2 2.</_>
        <_>
          10 21 6 2 2.</_></rects>
      <tilted>0</tilted></_>
    <_>
      <rects>
        <_>
          4 20 12 4 -1.</_>
        <_>
          4 20 6 2 2.</_>
        <_>
          10 22 6 2 2.</_></rects>
      <tilted>0</tilted></_>
    <_>
      <rects>
        <_>
          5 1 2 1 -1.</_>
        <_>
          6 1 1 1 2.</_></rects>
      <tilted>0</tilted></_>
    <_>
      <rects>
        <_>
          5 5 4 10 -1.</_>
        <_>
          5 5 2 5 2.</_>
        <_>
          7 10 2 5 2.</_></rects>
      <tilted>0</tilted></_>
    <_>
      <rects>
        <_>
          5 14 2 2 -1.</_>
        <_>
          5 14 1 1 2.</_>
        <_>
          6 15 1 1 2.</_></rects>
      <tilted>0</tilted></_>
    <_>
      <rects>
        <_>
          6 1 12 6 -1.</_>
        <_>
          6 4 12 3 2.</_></rects>
      <tilted>0</tilted></_>
    <_>
      <rects>
        <_>
          6 10 4 8 -1.</_>
        <_>
          6 10 2 4 2.</_>
        <_>
          8 14 2 4 2.</_></rects>
      <tilted>0</tilted></_>
    <_>
      <rects>
        <_>
          6 18 1 6 -1.</_>
        <_>
          6 20 1 2 2.</_></rects>
      <tilted>0</tilted></_>
    <_>
      <rects>
        <_>
          6 21 4 2 -1.</_>
        <_>
          8 21 2 2 2.</_></rects>
      <tilted>0</tilted></_>
    <_>
      <rects>
        <_>
          7 11 12 6 -1.</_>
        <_>
          7 11 6 3 2.</_>
        <_>
          13 14 6 3 2.</_></rects>
      <tilted>0</tilted></_>
    <_>
      <rects>
        <_>
          8 6 2 12 -1.</_>
        <_>
          9 6 1 12 2.</_></rects>
      <tilted>0</tilted></_>
    <_>
      <rects>
        <_>
          9 2 2 9 -1.</_>
        <_>
          9 5 2 3 2.</_></rects>
      <tilted>0</tilted></_>
    <_>
      <rects>
        <_>
          9 6 14 4 -1.</_>
        <_>
          9 6 7 2 2.</_>
        <_>
          16 8 7 2 2.</_></rects>
      <tilted>0</tilted></_>
    <_>
      <rects>
        <_>
          9 16 7 8 -1.</_>
        <_>
          9 20 7 4 2.</_></rects>
      <tilted>0</tilted></_>
    <_>
      <rects>
        <_>
          10 18 8 6 -1.</_>
        <_>
          14 18 4 6 2.</_></rects>
      <tilted>0</tilted></_>
    <_>
      <rects>
        <_>
          11 2 2 1 -1.</_>
        <_>
          12 2 1 1 2.</_></rects>
      <tilted>0</tilted></_>
    <_>
      <rects>
        <_>
          11 6 6 16 -1.</_>
        <_>
          11 14 6 8 2.</_></rects>
      <tilted>0</tilted></_>
    <_>
      <rects>
        <_>
          13 7 1 4 -1.</_>
        <_>
          13 9 1 2 2.</_></rects>
      <tilted>0</tilted></_>
    <_>
      <rects>
        <_>
          13 8 6 4 -1.</_>
        <_>
          15 8 2 4 2.</_></rects>
      <tilted>0</tilted></_>
    <_>
      <rects>
        <_>
          14 17 9 4 -1.</_>
        <_>
          17 17 3 4 2.</_></rects>
      <tilted>0</tilted></_>
    <_>
      <rects>
        <_>
          14 19 8 3 -1.</_>
        <_>
          18 19 4 3 2.</_></rects>
      <tilted>0</tilted></_>
    <_>
      <rects>
        <_>
          15 2 8 16 -1.</_>
        <_>
          19 2 4 16 2.</_></rects>
      <tilted>0</tilted></_>
    <_>
      <rects>
        <_>
          15 7 8 15 -1.</_>
        <_>
          19 7 4 15 2.</_></rects>
      <tilted>0</tilted></_>
    <_>
      <rects>
        <_>
          15 20 6 1 -1.</_>
        <_>
          18 20 3 1 2.</_></rects>
      <tilted>0</tilted></_>
    <_>
      <rects>
        <_>
          17 15 2 6 -1.</_>
        <_>
          18 15 1 6 2.</_></rects>
      <tilted>0</tilted></_>
    <_>
      <rects>
        <_>
          18 4 4 6 -1.</_>
        <_>
          18 7 4 3 2.</_></rects>
      <tilted>0</tilted></_>
    <_>
      <rects>
        <_>
          19 7 2 16 -1.</_>
        <_>
          19 7 1 8 2.</_>
        <_>
          20 15 1 8 2.</_></rects>
      <tilted>0</tilted></_>
    <_>
      <rects>
        <_>
          21 0 2 2 -1.</_>
        <_>
          21 0 1 1 2.</_>
        <_>
          22 1 1 1 2.</_></rects>
      <tilted>0</tilted></_>
    <_>
      <rects>
        <_>
          21 0 2 2 -1.</_>
        <_>
          22 0 1 2 2.</_></rects>
      <tilted>0</tilted></_>
    <_>
      <rects>
        <_>
          21 13 2 4 -1.</_>
        <_>
          21 13 1 2 2.</_>
        <_>
          22 15 1 2 2.</_></rects>
      <tilted>0</tilted></_>
    <_>
      <rects>
        <_>
          22 4 2 20 -1.</_>
        <_>
          23 4 1 20 2.</_></rects>
      <tilted>0</tilted></_>
    <_>
      <rects>
        <_>
          22 4 2 2 -1.</_>
        <_>
          22 5 2 1 2.</_></rects>
      <tilted>0</tilted></_></features></cascade>
</opencv_storage>
